{"learner":{"attributes":{},"feature_names":["Age","Sex","ChestPainType","RestingBP","Cholesterol","FastingBS","MaxHR","ExerciseAngina","ST_Depression","NumMajorVessels"],"feature_types":["int","int","int","int","int","int","int","int","float","int"],"gradient_booster":{"model":{"gbtree_model_param":{"num_parallel_tree":"1","num_trees":"50"},"iteration_indptr":[0,1,2,3,4,5,6,7,8,9,10,11,12,13,14,15,16,17,18,19,20,21,22,23,24,25,26,27,28,29,30,31,32,33,34,35,36,37,38,39,40,41,42,43,44,45,46,47,48,49,50],"tree_info":[0,0,0,0,0,0,0,0,0,0,0,0,0,0,0,0,0,0,0,0,0,0,0,0,0,0,0,0,0,0,0,0,0,0,0,0,0,0,0,0,0,0,0,0,0,0,0,0,0,0],"trees":[{"base_weights":[6.434508E-4,-1.007277E0,8.455462E-1,-7.928284E-2,-1.8077989E0,1.0505639E0,-1.0860953E0,4.662603E-2,-5.5705376E-2,-1.6693378E-2,-9.576206E-2,6.955152E-2,1.7215138E-2,-1.6693378E-2,-6.631979E-2],"categories":[],"categories_nodes":[],"categories_segments":[],"categories_sizes":[],"default_left":[0,0,0,0,0,0,0,0,0,0,0,0,0,0,0],"id":0,"left_children":[1,3,5,7,9,11,13,-1,-1,-1,-1,-1,-1,-1,-1],"loss_changes":[5.2721344E1,2.082912E1,1.4478024E1,1.5823675E1,1.75354E0,6.9643097E0,2.3015547E-1,0E0,0E0,0E0,0E0,0E0,0E0,0E0,0E0],"parents":[2147483647,0,0,1,1,2,2,3,3,4,4,5,5,6,6],"right_children":[2,4,6,8,10,12,14,-1,-1,-1,-1,-1,-1,-1,-1],"split_conditions":[1E0,1E0,2E0,1E0,1.1E2,5.7E1,1E0,4.662603E-2,-5.5705376E-2,-1.6693378E-2,-9.576206E-2,6.955152E-2,1.7215138E-2,-1.6693378E-2,-6.631979E-2],"split_indices":[2,9,8,7,3,0,9,0,0,0,0,0,0,0,0],"split_type":[0,0,0,0,0,0,0,0,0,0,0,0,0,0,0],"sum_hessian":[5.990884E1,2.723129E1,3.267755E1,1.3120531E1,1.411076E1,2.995442E1,2.723129E0,6.6840444E0,6.436487E0,1.2377859E0,1.2872974E1,1.9557018E1,1.0397402E1,1.2377859E0,1.4853432E0],"tree_param":{"num_deleted":"0","num_feature":"10","num_nodes":"15","size_leaf_vector":"1"}},{"base_weights":[-1.1225378E-3,7.33301E-1,-1.0599616E0,1.2067226E0,-6.549587E-1,-1.7137685E0,-7.042383E-2,6.411003E-2,2.5202709E-3,4.9771193E-2,-5.0176688E-2,-1.6217139E-2,-9.069417E-2,1.2545272E-2,-6.412225E-2],"categories":[],"categories_nodes":[],"categories_segments":[],"categories_sizes":[],"default_left":[0,0,0,0,0,0,0,0,0,0,0,0,0,0,0],"id":1,"left_children":[1,3,5,7,9,11,13,-1,-1,-1,-1,-1,-1,-1,-1],"loss_changes":[4.8084316E1,2.4786552E1,1.626271E1,2.3422966E0,6.713137E0,1.5268097E0,4.6516895E0,0E0,0E0,0E0,0E0,0E0,0E0,0E0,0E0],"parents":[2147483647,0,0,1,1,2,2,3,3,4,4,5,5,6,6],"right_children":[2,4,6,8,10,12,14,-1,-1,-1,-1,-1,-1,-1,-1],"split_conditions":[1E0,1E0,1E0,1.8E0,1.14E2,1.1E2,2E0,6.411003E-2,2.5202709E-3,4.9771193E-2,-5.0176688E-2,-1.6217139E-2,-9.069417E-2,1.2545272E-2,-6.412225E-2],"split_indices":[9,7,2,8,3,3,8,0,0,0,0,0,0,0,0],"split_type":[0,0,0,0,0,0,0,0,0,0,0,0,0,0,0],"sum_hessian":[5.9834408E1,3.5510998E1,2.432341E1,2.657814E1,8.932858E0,1.4205603E1,1.0117807E1,2.4847372E1,1.7307677E0,1.234104E0,7.6987543E0,1.2397445E0,1.2965858E1,8.624326E0,1.4934822E0],"tree_param":{"num_deleted":"0","num_feature":"10","num_nodes":"15","size_leaf_vector":"1"}},{"base_weights":[-2.4256648E-3,-9.1956985E-1,7.7675885E-1,-8.3834834E-2,-1.631183E0,9.7107923E-1,-1.0212725E0,4.2439714E-2,-5.0942566E-2,-1.5755739E-2,-8.6269185E-2,6.487069E-2,1.5124778E-2,-1.5989289E-2,-6.2079277E-2],"categories":[],"categories_nodes":[],"categories_segments":[],"categories_sizes":[],"default_left":[0,0,0,0,0,0,0,0,0,0,0,0,0,0,0],"id":2,"left_children":[1,3,5,7,9,11,13,-1,-1,-1,-1,-1,-1,-1,-1],"loss_changes":[4.405964E1,1.6705002E1,1.2639116E1,1.3140941E1,1.3458061E0,6.283289E0,1.8077159E-1,0E0,0E0,0E0,0E0,0E0,0E0,0E0,0E0],"parents":[2147483647,0,0,1,1,2,2,3,3,4,4,5,5,6,6],"right_children":[2,4,6,8,10,12,14,-1,-1,-1,-1,-1,-1,-1,-1],"split_conditions":[1E0,1E0,2E0,1E0,1.1E2,5.7E1,1E0,4.2439714E-2,-5.0942566E-2,-1.5755739E-2,-8.6269185E-2,6.487069E-2,1.5124778E-2,-1.5989289E-2,-6.2079277E-2],"split_indices":[2,9,8,7,3,0,9,0,0,0,0,0,0,0,0],"split_type":[0,0,0,0,0,0,0,0,0,0,0,0,0,0,0],"sum_hessian":[5.965473E1,2.7318796E1,3.2335938E1,1.3077769E1,1.4241027E1,2.9597174E1,2.7387626E0,6.593409E0,6.48436E0,1.241486E0,1.299954E1,1.9257217E1,1.0339956E1,1.2404904E0,1.4982722E0],"tree_param":{"num_deleted":"0","num_feature":"10","num_nodes":"15","size_leaf_vector":"1"}},{"base_weights":[-3.9832806E-3,6.7911303E-1,-9.785608E-1,1.1216127E0,-5.956038E-1,-1.5579759E0,-9.2748545E-2,7.3747754E-2,3.9190374E-2,7.0451656E-3,-7.177215E-2,-1.5308623E-2,-8.236828E-2,1.0365506E-2,-6.017508E-2],"categories":[],"categories_nodes":[],"categories_segments":[],"categories_sizes":[],"default_left":[0,0,0,0,0,0,0,0,0,0,0,0,0,0,0],"id":3,"left_children":[1,3,5,7,9,11,13,-1,-1,-1,-1,-1,-1,-1,-1],"loss_changes":[4.0857197E1,2.1022306E1,1.2834934E1,2.0825958E0,6.357885E0,1.1992836E0,3.9368663E0,0E0,0E0,0E0,0E0,0E0,0E0,0E0,0E0],"parents":[2147483647,0,0,1,1,2,2,3,3,4,4,5,5,6,6],"right_children":[2,4,6,8,10,12,14,-1,-1,-1,-1,-1,-1,-1,-1],"split_conditions":[1E0,1E0,1E0,1E0,1.6E0,1.1E2,2E0,7.3747754E-2,3.9190374E-2,7.0451656E-3,-7.177215E-2,-1.5308623E-2,-8.236828E-2,1.0365506E-2,-6.017508E-2],"split_indices":[9,7,2,1,8,3,8,0,0,0,0,0,0,0,0],"split_type":[0,0,0,0,0,0,0,0,0,0,0,0,0,0,0],"sum_hessian":[5.9373753E1,3.5085182E1,2.428857E1,2.6133442E1,8.951741E0,1.4225062E1,1.0063507E1,1.1127671E1,1.5005771E1,5.2126613E0,3.73908E0,1.2430247E0,1.2982038E1,8.56352E0,1.4999874E0],"tree_param":{"num_deleted":"0","num_feature":"10","num_nodes":"15","size_leaf_vector":"1"}},{"base_weights":[-5.3603775E-3,6.514972E-1,-9.38307E-1,1.0806757E0,-5.720828E-1,-1.4925416E0,-9.272685E-2,5.7626206E-2,9.4862795E-4,4.8309863E-2,-4.490104E-2,-1.48752555E-2,-7.889981E-2,9.915216E-3,-5.839578E-2],"categories":[],"categories_nodes":[],"categories_segments":[],"categories_sizes":[],"default_left":[0,0,0,0,0,0,0,0,0,0,0,0,0,0,0],"id":4,"left_children":[1,3,5,7,9,11,13,-1,-1,-1,-1,-1,-1,-1,-1],"loss_changes":[3.7401394E1,1.9428799E1,1.1678272E1,2.027441E0,5.8591995E0,1.0791931E0,3.6891227E0,0E0,0E0,0E0,0E0,0E0,0E0,0E0,0E0],"parents":[2147483647,0,0,1,1,2,2,3,3,4,4,5,5,6,6],"right_children":[2,4,6,8,10,12,14,-1,-1,-1,-1,-1,-1,-1,-1],"split_conditions":[1E0,1E0,1E0,1.8E0,1.14E2,1.1E2,2E0,5.7626206E-2,9.4862795E-4,4.8309863E-2,-4.490104E-2,-1.48752555E-2,-7.889981E-2,9.915216E-3,-5.839578E-2],"split_indices":[9,7,2,8,3,3,8,0,0,0,0,0,0,0,0],"split_type":[0,0,0,0,0,0,0,0,0,0,0,0,0,0,0],"sum_hessian":[5.9034775E1,3.482048E1,2.4214296E1,2.5864967E1,8.955512E0,1.416485E1,1.0049446E1,2.4145435E1,1.7195312E0,1.2223262E0,7.7331862E0,1.2443745E0,1.2920475E1,8.550553E0,1.498893E0],"tree_param":{"num_deleted":"0","num_feature":"10","num_nodes":"15","size_leaf_vector":"1"}},{"base_weights":[-6.386247E-3,-8.2215697E-1,6.92773E-1,-1.00249045E-1,-1.4336144E0,8.7442994E-1,-9.474803E-1,3.6870643E-2,-4.5740493E-2,-2.7330711E-2,-7.922601E-2,5.947554E-2,1.2199189E-2,-1.5792875E-2,-5.6729164E-2],"categories":[],"categories_nodes":[],"categories_segments":[],"categories_sizes":[],"default_left":[0,0,0,0,0,0,0,0,0,0,0,0,0,0,0],"id":5,"left_children":[1,3,5,7,9,11,13,-1,-1,-1,-1,-1,-1,-1,-1],"loss_changes":[3.456723E1,1.2201433E1,1.0554294E1,1.0159219E1,1.1506119E0,5.6504326E0,8.296752E-2,0E0,0E0,0E0,0E0,0E0,0E0,0E0,0E0],"parents":[2147483647,0,0,1,1,2,2,3,3,4,4,5,5,6,6],"right_children":[2,4,6,8,10,12,14,-1,-1,-1,-1,-1,-1,-1,-1],"split_conditions":[1E0,1E0,2E0,1E0,1E0,5.7E1,1E0,3.6870643E-2,-4.5740493E-2,-2.7330711E-2,-7.922601E-2,5.947554E-2,1.2199189E-2,-1.5792875E-2,-5.6729164E-2],"split_indices":[2,9,8,7,1,0,9,0,0,0,0,0,0,0,0],"split_type":[0,0,0,0,0,0,0,0,0,0,0,0,0,0,0],"sum_hessian":[5.860804E1,2.6967157E1,3.164088E1,1.2900422E1,1.4066735E1,2.890641E1,2.7344716E0,6.4067187E0,6.493704E0,2.7172709E0,1.1349464E1,1.8682566E1,1.0223845E1,1.2392282E0,1.4952433E0],"tree_param":{"num_deleted":"0","num_feature":"10","num_nodes":"15","size_leaf_vector":"1"}},{"base_weights":[-8.007222E-3,6.0718155E-1,-8.7685394E-1,1.0105886E0,-5.2140254E-1,-1.3801616E0,-1.114313E-1,6.8294175E-2,3.3935755E-2,8.795653E-3,-6.619767E-2,-2.6381183E-2,-7.629369E-2,8.030502E-3,-5.5164434E-2],"categories":[],"categories_nodes":[],"categories_segments":[],"categories_sizes":[],"default_left":[0,0,0,0,0,0,0,0,0,0,0,0,0,0,0],"id":6,"left_children":[1,3,5,7,9,11,13,-1,-1,-1,-1,-1,-1,-1,-1],"loss_changes":[3.2140343E1,1.6558277E1,9.447556E0,2.171749E0,5.791045E0,1.0518379E0,3.1384776E0,0E0,0E0,0E0,0E0,0E0,0E0,0E0,0E0],"parents":[2147483647,0,0,1,1,2,2,3,3,4,4,5,5,6,6],"right_children":[2,4,6,8,10,12,14,-1,-1,-1,-1,-1,-1,-1,-1],"split_conditions":[1E0,1E0,1E0,1E0,1.6E0,1E0,2E0,6.8294175E-2,3.3935755E-2,8.795653E-3,-6.619767E-2,-2.6381183E-2,-7.629369E-2,8.030502E-3,-5.5164434E-2],"split_indices":[9,7,2,1,8,1,8,0,0,0,0,0,0,0,0],"split_type":[0,0,0,0,0,0,0,0,0,0,0,0,0,0,0],"sum_hessian":[5.8134995E1,3.4212162E1,2.392283E1,2.5280367E1,8.931797E0,1.3948069E1,9.974762E0,1.0704618E1,1.45757475E1,5.1970353E0,3.734762E0,2.710483E0,1.1237586E1,8.48548E0,1.4892808E0],"tree_param":{"num_deleted":"0","num_feature":"10","num_nodes":"15","size_leaf_vector":"1"}},{"base_weights":[-9.409908E-3,-7.692714E-1,6.433335E-1,4.0652357E-2,-1.221389E0,8.17608E-1,-9.061571E-1,2.644074E-2,-3.6239903E-2,-2.3070557E-2,-7.728118E-2,5.625859E-2,1.0704589E-2,-1.5752511E-2,-5.3692054E-2],"categories":[],"categories_nodes":[],"categories_segments":[],"categories_sizes":[],"default_left":[0,0,0,0,0,0,0,0,0,0,0,0,0,0,0],"id":7,"left_children":[1,3,5,7,9,11,13,-1,-1,-1,-1,-1,-1,-1,-1],"loss_changes":[2.9576845E1,1.0137615E1,9.404867E0,4.432709E0,3.6512775E0,5.2100906E0,3.0220032E-2,0E0,0E0,0E0,0E0,0E0,0E0,0E0,0E0],"parents":[2147483647,0,0,1,1,2,2,3,3,4,4,5,5,6,6],"right_children":[2,4,6,8,10,12,14,-1,-1,-1,-1,-1,-1,-1,-1],"split_conditions":[1E0,8E-1,2E0,1E0,1E0,5.7E1,1E0,2.644074E-2,-3.6239903E-2,-2.3070557E-2,-7.728118E-2,5.625859E-2,1.0704589E-2,-1.5752511E-2,-5.3692054E-2],"split_indices":[2,8,8,9,7,0,9,0,0,0,0,0,0,0,0],"split_type":[0,0,0,0,0,0,0,0,0,0,0,0,0,0,0],"sum_hessian":[5.76336E1,2.6549126E1,3.1084475E1,9.837072E0,1.6712051E1,2.8366385E1,2.7180896E0,6.1952357E0,3.6418374E0,5.7223744E0,1.0989677E1,1.8217848E1,1.0148536E1,1.2368551E0,1.4812346E0],"tree_param":{"num_deleted":"0","num_feature":"10","num_nodes":"15","size_leaf_vector":"1"}},{"base_weights":[-1.089621E-2,5.7073724E-1,-8.2957333E-1,9.536731E-1,-4.8318866E-1,-1.2939618E0,-1.2792698E-1,6.545597E-2,3.134605E-2,8.427555E-3,-6.1885085E-2,-9.786601E-3,-6.90779E-2,2.8501516E-2,-2.4243882E-2],"categories":[],"categories_nodes":[],"categories_segments":[],"categories_sizes":[],"default_left":[0,0,0,0,0,0,0,0,0,0,0,0,0,0,0],"id":8,"left_children":[1,3,5,7,9,11,13,-1,-1,-1,-1,-1,-1,-1,-1],"loss_changes":[2.8157705E1,1.4418029E1,7.835829E0,2.1644611E0,5.067258E0,1.1405411E0,2.9893909E0,0E0,0E0,0E0,0E0,0E0,0E0,0E0,0E0],"parents":[2147483647,0,0,1,1,2,2,3,3,4,4,5,5,6,6],"right_children":[2,4,6,8,10,12,14,-1,-1,-1,-1,-1,-1,-1,-1],"split_conditions":[1E0,1E0,1E0,1E0,1.6E0,1.1E2,1E0,6.545597E-2,3.134605E-2,8.427555E-3,-6.1885085E-2,-9.786601E-3,-6.90779E-2,2.8501516E-2,-2.4243882E-2],"split_indices":[9,7,2,1,8,3,1,0,0,0,0,0,0,0,0],"split_type":[0,0,0,0,0,0,0,0,0,0,0,0,0,0,0],"sum_hessian":[5.7139393E1,3.3583015E1,2.3556376E1,2.470263E1,8.880387E0,1.3666771E1,9.8896055E0,1.03918E1,1.431083E1,5.18138E0,3.6990077E0,1.2484844E0,1.2418286E1,3.1443706E0,6.745235E0],"tree_param":{"num_deleted":"0","num_feature":"10","num_nodes":"15","size_leaf_vector":"1"}},{"base_weights":[-1.0956398E-2,5.495105E-1,-7.975421E-1,9.223091E-1,-4.657395E-1,-1.2515423E0,-1.2106238E-1,6.371272E-2,3.0130504E-2,4.6995755E-2,-3.8470514E-2,-2.2137536E-2,-6.982543E-2,2.4150176E-2,-2.5546476E-2],"categories":[],"categories_nodes":[],"categories_segments":[],"categories_sizes":[],"default_left":[0,0,0,0,0,0,0,0,0,0,0,0,0,0,0],"id":9,"left_children":[1,3,5,7,9,11,13,-1,-1,-1,-1,-1,-1,-1,-1],"loss_changes":[2.5824211E1,1.3380063E1,7.3320065E0,2.0858192E0,4.92956E0,1.0787239E0,2.8120732E0,0E0,0E0,0E0,0E0,0E0,0E0,0E0,0E0],"parents":[2147483647,0,0,1,1,2,2,3,3,4,4,5,5,6,6],"right_children":[2,4,6,8,10,12,14,-1,-1,-1,-1,-1,-1,-1,-1],"split_conditions":[1E0,1E0,1E0,1E0,1.14E2,1E0,5.5E1,6.371272E-2,3.0130504E-2,4.6995755E-2,-3.8470514E-2,-2.2137536E-2,-6.982543E-2,2.4150176E-2,-2.5546476E-2],"split_indices":[9,7,2,1,3,1,0,0,0,0,0,0,0,0,0],"split_type":[0,0,0,0,0,0,0,0,0,0,0,0,0,0,0],"sum_hessian":[5.658342E1,3.3216805E1,2.3366613E1,2.4362476E1,8.854327E0,1.3473904E1,9.89271E0,1.0175183E1,1.4187294E1,1.2007989E0,7.6535287E0,2.664176E0,1.0809728E1,3.7866797E0,6.1060305E0],"tree_param":{"num_deleted":"0","num_feature":"10","num_nodes":"15","size_leaf_vector":"1"}},{"base_weights":[-1.0311534E-2,5.311366E-1,-7.6827204E-1,8.925014E-1,-4.4288895E-1,-1.2125545E0,-1.1516896E-1,6.209178E-2,2.8965116E-2,9.045214E-3,-5.8734555E-2,-8.123146E-3,-6.502019E-2,2.7918471E-2,-2.2954673E-2],"categories":[],"categories_nodes":[],"categories_segments":[],"categories_sizes":[],"default_left":[0,0,0,0,0,0,0,0,0,0,0,0,0,0,0],"id":10,"left_children":[1,3,5,7,9,11,13,-1,-1,-1,-1,-1,-1,-1,-1],"loss_changes":[2.38005E1,1.2306171E1,6.8706207E0,2.017435E0,4.69783E0,1.1054745E0,2.7780883E0,0E0,0E0,0E0,0E0,0E0,0E0,0E0,0E0],"parents":[2147483647,0,0,1,1,2,2,3,3,4,4,5,5,6,6],"right_children":[2,4,6,8,10,12,14,-1,-1,-1,-1,-1,-1,-1,-1],"split_conditions":[1E0,1E0,1E0,1E0,1.6E0,1.1E2,1E0,6.209178E-2,2.8965116E-2,9.045214E-3,-5.8734555E-2,-8.123146E-3,-6.502019E-2,2.7918471E-2,-2.2954673E-2],"split_indices":[9,7,2,1,8,3,1,0,0,0,0,0,0,0,0],"split_type":[0,0,0,0,0,0,0,0,0,0,0,0,0,0,0],"sum_hessian":[5.599965E1,3.283982E1,2.3159828E1,2.4014214E1,8.825608E0,1.32736435E1,9.886184E0,9.950584E0,1.4063628E1,5.1707883E0,3.65482E0,1.2446979E0,1.2028946E1,3.13098E0,6.7552037E0],"tree_param":{"num_deleted":"0","num_feature":"10","num_nodes":"15","size_leaf_vector":"1"}},{"base_weights":[-1.035467E-2,-6.850965E-1,5.662796E-1,5.4084733E-2,-1.101739E0,7.3405117E-1,-4.3823205E-2,2.2732016E-2,-2.9251998E-2,-2.0483563E-2,-6.989659E-2,5.1624127E-2,8.42911E-3],"categories":[],"categories_nodes":[],"categories_segments":[],"categories_sizes":[],"default_left":[0,0,0,0,0,0,0,0,0,0,0,0,0],"id":11,"left_children":[1,3,5,7,9,11,-1,-1,-1,-1,-1,-1,-1],"loss_changes":[2.232801E1,8.201476E0,8.135532E0,2.949677E0,2.9026127E0,4.5970383E0,0E0,0E0,0E0,0E0,0E0,0E0,0E0],"parents":[2147483647,0,0,1,1,2,2,3,3,4,4,5,5],"right_children":[2,4,6,8,10,12,-1,-1,-1,-1,-1,-1,-1],"split_conditions":[1E0,8E-1,2E0,1E0,1E0,5.7E1,-4.3823205E-2,2.2732016E-2,-2.9251998E-2,-2.0483563E-2,-6.989659E-2,5.1624127E-2,8.42911E-3],"split_indices":[2,8,8,9,7,0,0,0,0,0,0,0,0],"split_type":[0,0,0,0,0,0,0,0,0,0,0,0,0],"sum_hessian":[5.5389675E1,2.5436895E1,2.995278E1,9.482977E0,1.59539175E1,2.7272562E1,2.6802182E0,6.0069327E0,3.4760444E0,5.4958158E0,1.0458101E1,1.7310764E1,9.961797E0],"tree_param":{"num_deleted":"0","num_feature":"10","num_nodes":"13","size_leaf_vector":"1"}},{"base_weights":[-1.1357926E-2,5.023312E-1,-7.290424E-1,8.460307E-1,-4.1075513E-1,-1.1475569E0,-1.2519331E-1,5.9922248E-2,2.6818708E-2,4.6000574E-2,-3.512897E-2,-1.8405275E-2,-6.475862E-2,2.627835E-2,-2.2714375E-2],"categories":[],"categories_nodes":[],"categories_segments":[],"categories_sizes":[],"default_left":[0,0,0,0,0,0,0,0,0,0,0,0,0,0,0],"id":12,"left_children":[1,3,5,7,9,11,13,-1,-1,-1,-1,-1,-1,-1,-1],"loss_changes":[2.0942112E1,1.074175E1,5.8434496E0,2.0188007E0,4.4253774E0,1.1191387E0,2.5560908E0,0E0,0E0,0E0,0E0,0E0,0E0,0E0,0E0],"parents":[2147483647,0,0,1,1,2,2,3,3,4,4,5,5,6,6],"right_children":[2,4,6,8,10,12,14,-1,-1,-1,-1,-1,-1,-1,-1],"split_conditions":[1E0,1E0,1E0,1E0,1.14E2,1E0,1E0,5.9922248E-2,2.6818708E-2,4.6000574E-2,-3.512897E-2,-1.8405275E-2,-6.475862E-2,2.627835E-2,-2.2714375E-2],"split_indices":[9,7,2,1,3,1,1,0,0,0,0,0,0,0,0],"split_type":[0,0,0,0,0,0,0,0,0,0,0,0,0,0,0],"sum_hessian":[5.4811634E1,3.2120884E1,2.2690746E1,2.338998E1,8.730905E0,1.2870254E1,9.820494E0,9.59727E0,1.379271E1,1.1831093E0,7.5477953E0,2.6056046E0,1.0264648E1,3.0978012E0,6.722692E0],"tree_param":{"num_deleted":"0","num_feature":"10","num_nodes":"15","size_leaf_vector":"1"}},{"base_weights":[-1.0555828E-2,4.8620403E-1,-7.031208E-1,6.6953593E-1,-5.3257674E-2,-1.1152054E0,-1.1858617E-1,4.522443E-3,4.7276966E-2,-5.3966977E-3,-6.0333412E-2,4.2881142E-2,-1.6271457E-2],"categories":[],"categories_nodes":[],"categories_segments":[],"categories_sizes":[],"default_left":[0,0,0,0,0,0,0,0,0,0,0,0,0],"id":13,"left_children":[1,3,5,7,-1,9,11,-1,-1,-1,-1,-1,-1],"loss_changes":[1.9327732E1,1.0021036E1,5.5184374E0,4.6904974E0,0E0,1.1263828E0,2.463641E0,0E0,0E0,0E0,0E0,0E0,0E0],"parents":[2147483647,0,0,1,1,2,2,3,3,5,5,6,6],"right_children":[2,4,6,8,-1,10,12,-1,-1,-1,-1,-1,-1],"split_conditions":[1E0,2.4E0,1E0,1.51E2,-5.3257674E-2,1.1E2,4.4E1,4.522443E-3,4.7276966E-2,-5.3966977E-3,-6.0333412E-2,4.2881142E-2,-1.6271457E-2],"split_indices":[9,8,2,6,0,3,0,0,0,0,0,0,0],"split_type":[0,0,0,0,0,0,0,0,0,0,0,0,0],"sum_hessian":[5.4185314E1,3.1726582E1,2.245873E1,2.888188E1,2.8447015E0,1.2639969E1,9.818762E0,9.750954E0,1.9130926E1,1.2336783E0,1.140629E1,1.1666116E0,8.652151E0],"tree_param":{"num_deleted":"0","num_feature":"10","num_nodes":"13","size_leaf_vector":"1"}},{"base_weights":[-1.08820675E-2,-6.321607E-1,5.1655626E-1,6.2095355E-2,-1.0282307E0,6.7675954E-1,-8.2490396E-1,2.0287855E-2,-2.4856765E-2,-1.8635994E-2,-6.567537E-2,4.844667E-2,7.0415013E-3,-1.4551513E-2,-4.8708845E-2],"categories":[],"categories_nodes":[],"categories_segments":[],"categories_sizes":[],"default_left":[0,0,0,0,0,0,0,0,0,0,0,0,0,0,0],"id":14,"left_children":[1,3,5,7,9,11,13,-1,-1,-1,-1,-1,-1,-1,-1],"loss_changes":[1.8217426E1,7.0807476E0,7.0224724E0,2.1644793E0,2.5596046E0,4.157028E0,8.132219E-3,0E0,0E0,0E0,0E0,0E0,0E0,0E0,0E0],"parents":[2147483647,0,0,1,1,2,2,3,3,4,4,5,5,6,6],"right_children":[2,4,6,8,10,12,14,-1,-1,-1,-1,-1,-1,-1,-1],"split_conditions":[1E0,8E-1,2E0,1E0,1E0,5.7E1,1E0,2.0287855E-2,-2.4856765E-2,-1.8635994E-2,-6.567537E-2,4.844667E-2,7.0415013E-3,-1.4551513E-2,-4.8708845E-2],"split_indices":[2,8,8,9,7,0,9,0,0,0,0,0,0,0,0],"split_type":[0,0,0,0,0,0,0,0,0,0,0,0,0,0,0],"sum_hessian":[5.3597607E1,2.4518406E1,2.90792E1,9.212822E0,1.5305585E1,2.6419561E1,2.6596394E0,5.8761888E0,3.3366332E0,5.3405504E0,9.9650345E0,1.6575247E1,9.844314E0,1.2256744E0,1.433965E0],"tree_param":{"num_deleted":"0","num_feature":"10","num_nodes":"15","size_leaf_vector":"1"}},{"base_weights":[-1.2237427E-2,4.5800832E-1,-6.6801167E-1,7.8145546E-1,-3.808046E-1,1.4861305E-1,-9.407971E-1,2.60119E-2,6.202134E-2,4.453289E-2,-3.3054084E-2,3.983578E-2,-2.7533337E-2,-5.095201E-3,-6.1245408E-2],"categories":[],"categories_nodes":[],"categories_segments":[],"categories_sizes":[],"default_left":[0,0,0,0,0,0,0,0,0,0,0,0,0,0,0],"id":15,"left_children":[1,3,5,7,9,11,13,-1,-1,-1,-1,-1,-1,-1,-1],"loss_changes":[1.6954151E1,8.988844E0,5.2528133E0,2.1657782E0,4.0053153E0,3.434798E0,4.0083885E0,0E0,0E0,0E0,0E0,0E0,0E0,0E0,0E0],"parents":[2147483647,0,0,1,1,2,2,3,3,4,4,5,5,6,6],"right_children":[2,4,6,8,10,12,14,-1,-1,-1,-1,-1,-1,-1,-1],"split_conditions":[1E0,1E0,1E0,1.7E2,1.14E2,9E-1,5.4E1,2.60119E-2,6.202134E-2,4.453289E-2,-3.3054084E-2,3.983578E-2,-2.7533337E-2,-5.095201E-3,-6.1245408E-2],"split_indices":[9,7,1,6,3,8,0,0,0,0,0,0,0,0,0],"split_type":[0,0,0,0,0,0,0,0,0,0,0,0,0,0,0],"sum_hessian":[5.298685E1,3.1034243E1,2.1952606E1,2.2447025E1,8.587217E0,5.610856E0,1.6341751E1,1.56649885E1,6.7820354E0,1.1576811E0,7.429537E0,2.8396711E0,2.7711852E0,4.4780664E0,1.1863685E1],"tree_param":{"num_deleted":"0","num_feature":"10","num_nodes":"15","size_leaf_vector":"1"}},{"base_weights":[-1.0872698E-2,-5.9819573E-1,4.8683155E-1,6.427515E-2,-9.8133E-1,6.4193416E-1,-3.9837897E-2,1.9325694E-2,-2.318267E-2,-1.76895E-2,-6.29712E-2,4.6307992E-2,6.653029E-3],"categories":[],"categories_nodes":[],"categories_segments":[],"categories_sizes":[],"default_left":[0,0,0,0,0,0,0,0,0,0,0,0,0],"id":16,"left_children":[1,3,5,7,9,11,-1,-1,-1,-1,-1,-1,-1],"loss_changes":[1.5897079E1,6.392626E0,6.374579E0,1.8933716E0,2.3224754E0,3.7571335E0,0E0,0E0,0E0,0E0,0E0,0E0,0E0],"parents":[2147483647,0,0,1,1,2,2,3,3,4,4,5,5],"right_children":[2,4,6,8,10,12,-1,-1,-1,-1,-1,-1,-1],"split_conditions":[1E0,8E-1,2E0,1E0,1E0,5.7E1,-3.9837897E-2,1.9325694E-2,-2.318267E-2,-1.76895E-2,-6.29712E-2,4.6307992E-2,6.653029E-3],"split_indices":[2,8,8,9,7,0,0,0,0,0,0,0,0],"split_type":[0,0,0,0,0,0,0,0,0,0,0,0,0],"sum_hessian":[5.2387466E1,2.3937622E1,2.8449844E1,9.076258E0,1.4861363E1,2.582872E1,2.6211236E0,5.802423E0,3.2738347E0,5.26122E0,9.600143E0,1.6046247E1,9.782474E0],"tree_param":{"num_deleted":"0","num_feature":"10","num_nodes":"13","size_leaf_vector":"1"}},{"base_weights":[-1.1799971E-2,4.365253E-1,-6.360482E-1,6.0483074E-1,-4.8606448E-2,1.4805053E-1,-9.01586E-1,4.800228E-2,9.047604E-3,3.8305875E-2,-2.6065676E-2,-5.2233804E-3,-5.8745563E-2],"categories":[],"categories_nodes":[],"categories_segments":[],"categories_sizes":[],"default_left":[0,0,0,0,0,0,0,0,0,0,0,0,0],"id":17,"left_children":[1,3,5,7,-1,9,11,-1,-1,-1,-1,-1,-1],"loss_changes":[1.5046942E1,8.010423E0,4.8109655E0,4.129862E0,0E0,3.106005E0,3.5643559E0,0E0,0E0,0E0,0E0,0E0,0E0],"parents":[2147483647,0,0,1,1,2,2,3,3,5,5,6,6],"right_children":[2,4,6,8,-1,10,12,-1,-1,-1,-1,-1,-1],"split_conditions":[1E0,2.4E0,1E0,2.41E2,-4.8606448E-2,9E-1,5.4E1,4.800228E-2,9.047604E-3,3.8305875E-2,-2.6065676E-2,-5.2233804E-3,-5.8745563E-2],"split_indices":[9,8,1,4,0,8,0,0,0,0,0,0,0],"split_type":[0,0,0,0,0,0,0,0,0,0,0,0,0],"sum_hessian":[5.177268E1,3.0307224E1,2.1465454E1,2.758233E1,2.724894E0,5.5422783E0,1.5923177E1,1.431843E1,1.3263901E1,2.8064013E0,2.735877E0,4.4187274E0,1.1504449E1],"tree_param":{"num_deleted":"0","num_feature":"10","num_nodes":"13","size_leaf_vector":"1"}},{"base_weights":[-1.2159804E-2,-5.742235E-1,4.6255076E-1,5.279427E-2,-9.411041E-1,6.09963E-1,-7.4614733E-1,1.7431293E-2,-2.1623326E-2,-1.6679471E-2,-6.0822573E-2,4.4367205E-2,6.2526646E-3,-1.2868759E-2,-4.449672E-2],"categories":[],"categories_nodes":[],"categories_segments":[],"categories_sizes":[],"default_left":[0,0,0,0,0,0,0,0,0,0,0,0,0,0,0],"id":18,"left_children":[1,3,5,7,9,11,13,-1,-1,-1,-1,-1,-1,-1,-1],"loss_changes":[1.4200865E1,5.6534195E0,5.5987144E0,1.577548E0,2.1737728E0,3.4238358E0,2.3100019E-2,0E0,0E0,0E0,0E0,0E0,0E0,0E0,0E0],"parents":[2147483647,0,0,1,1,2,2,3,3,4,4,5,5,6,6],"right_children":[2,4,6,8,10,12,14,-1,-1,-1,-1,-1,-1,-1,-1],"split_conditions":[1E0,8E-1,2E0,1E0,1E0,5.7E1,1E0,1.7431293E-2,-2.1623326E-2,-1.6679471E-2,-6.0822573E-2,4.4367205E-2,6.2526646E-3,-1.2868759E-2,-4.449672E-2],"split_indices":[2,8,8,9,7,0,9,0,0,0,0,0,0,0,0],"split_type":[0,0,0,0,0,0,0,0,0,0,0,0,0,0,0],"sum_hessian":[5.122766E1,2.335976E1,2.78679E1,8.93887E0,1.442089E1,2.5280107E1,2.5877938E0,5.728283E0,3.210587E0,5.1873226E0,9.233567E0,1.5553296E1,9.72681E0,1.2224205E0,1.3653734E0],"tree_param":{"num_deleted":"0","num_feature":"10","num_nodes":"15","size_leaf_vector":"1"}},{"base_weights":[-1.3411055E-2,4.120477E-1,-6.063917E-1,-4.1660465E-2,9.305949E-1,1.4743043E-1,-8.653789E-1,9.057162E-3,-5.452584E-2,5.2310806E-2,-1.0923566E-3,3.6867328E-2,-2.4692962E-2,-5.332793E-3,-5.6457967E-2],"categories":[],"categories_nodes":[],"categories_segments":[],"categories_sizes":[],"default_left":[0,0,0,0,0,0,0,0,0,0,0,0,0,0,0],"id":19,"left_children":[1,3,5,7,9,11,13,-1,-1,-1,-1,-1,-1,-1,-1],"loss_changes":[1.32703705E1,7.248538E0,4.4157696E0,4.240683E0,1.6023874E0,2.812201E0,3.1805544E0,0E0,0E0,0E0,0E0,0E0,0E0,0E0,0E0],"parents":[2147483647,0,0,1,1,2,2,3,3,4,4,5,5,6,6],"right_children":[2,4,6,8,10,12,14,-1,-1,-1,-1,-1,-1,-1,-1],"split_conditions":[1E0,1.59E2,1E0,2.4E0,1.6E0,9E-1,5.4E1,9.057162E-3,-5.452584E-2,5.2310806E-2,-1.0923566E-3,3.6867328E-2,-2.4692962E-2,-5.332793E-3,-5.6457967E-2],"split_indices":[9,6,1,8,8,8,0,0,0,0,0,0,0,0,0],"split_type":[0,0,0,0,0,0,0,0,0,0,0,0,0,0,0],"sum_hessian":[5.0609535E1,2.9644775E1,2.096476E1,1.6301378E1,1.3343398E1,5.471081E0,1.5493678E1,1.412761E1,2.1737683E0,1.1811135E1,1.5322627E0,2.7716658E0,2.699415E0,4.3592668E0,1.1134412E1],"tree_param":{"num_deleted":"0","num_feature":"10","num_nodes":"15","size_leaf_vector":"1"}},{"base_weights":[-1.3726177E-2,-5.5070955E-1,4.38306E-1,4.225123E-2,-9.02018E-1,9.967925E-1,9.262309E-2,1.569364E-2,-2.0166375E-2,-1.5718969E-2,-5.8755994E-2,5.7854146E-2,2.1774601E-2,4.968356E-2,-1.1177744E-2],"categories":[],"categories_nodes":[],"categories_segments":[],"categories_sizes":[],"default_left":[0,0,0,0,0,0,0,0,0,0,0,0,0,0,0],"id":20,"left_children":[1,3,5,7,9,11,13,-1,-1,-1,-1,-1,-1,-1,-1],"loss_changes":[1.26261635E1,4.9882236E0,5.3633604E0,1.3122027E0,2.032526E0,4.5893574E-1,5.5090194E0,0E0,0E0,0E0,0E0,0E0,0E0,0E0,0E0],"parents":[2147483647,0,0,1,1,2,2,3,3,4,4,5,5,6,6],"right_children":[2,4,6,8,10,12,14,-1,-1,-1,-1,-1,-1,-1,-1],"split_conditions":[1E0,8E-1,1E0,1E0,1E0,1E0,4.5E1,1.569364E-2,-2.0166375E-2,-1.5718969E-2,-5.8755994E-2,5.7854146E-2,2.1774601E-2,4.968356E-2,-1.1177744E-2],"split_indices":[2,8,1,9,7,9,0,0,0,0,0,0,0,0,0],"split_type":[0,0,0,0,0,0,0,0,0,0,0,0,0,0,0],"sum_hessian":[5.0022095E1,2.2762957E1,2.7259136E1,8.79609E0,1.39668665E1,9.70162E0,1.7557516E1,5.6484313E0,3.1476593E0,5.1140366E0,8.852831E0,6.7209015E0,2.9807186E0,4.0040274E0,1.3553488E1],"tree_param":{"num_deleted":"0","num_feature":"10","num_nodes":"15","size_leaf_vector":"1"}},{"base_weights":[-1.2375506E-2,-5.330219E-1,4.247961E-1,-3.98147E-2,-9.381615E-1,9.7466564E-1,9.04024E-2,2.2500588E-2,-2.8280368E-2,-1.1728368E-2,-5.745363E-2,5.6838017E-2,2.1054445E-2,4.8466977E-2,-1.0633276E-2],"categories":[],"categories_nodes":[],"categories_segments":[],"categories_sizes":[],"default_left":[0,0,0,0,0,0,0,0,0,0,0,0,0,0,0],"id":21,"left_children":[1,3,5,7,9,11,13,-1,-1,-1,-1,-1,-1,-1,-1],"loss_changes":[1.1716605E1,4.6552644E0,5.0597754E0,3.2512033E0,1.6372089E0,4.621725E-1,5.13729E0,0E0,0E0,0E0,0E0,0E0,0E0,0E0,0E0],"parents":[2147483647,0,0,1,1,2,2,3,3,4,4,5,5,6,6],"right_children":[2,4,6,8,10,12,14,-1,-1,-1,-1,-1,-1,-1,-1],"split_conditions":[1E0,1E0,1E0,1E0,8E-1,1E0,4.5E1,2.2500588E-2,-2.8280368E-2,-1.1728368E-2,-5.745363E-2,5.6838017E-2,2.1054445E-2,4.8466977E-2,-1.0633276E-2],"split_indices":[2,7,1,9,8,9,0,0,0,0,0,0,0,0,0],"split_type":[0,0,0,0,0,0,0,0,0,0,0,0,0,0,0],"sum_hessian":[4.9481472E1,2.2484484E1,2.6996986E1,1.0635435E1,1.184905E1,9.485128E0,1.7511858E1,5.58065E0,5.054785E0,3.2198544E0,8.629195E0,6.5219345E0,2.963194E0,3.9263883E0,1.358547E1],"tree_param":{"num_deleted":"0","num_feature":"10","num_nodes":"15","size_leaf_vector":"1"}},{"base_weights":[-1.1055914E-2,3.850775E-1,-5.625791E-1,-3.7736014E-2,8.79221E-1,1.4900902E-1,-8.113332E-1,8.434351E-3,-5.1502477E-2,5.3305347E-2,8.921691E-3,-1.8346906E-2,4.126529E-2,-4.5267623E-3,-5.345272E-2],"categories":[],"categories_nodes":[],"categories_segments":[],"categories_sizes":[],"default_left":[0,0,0,0,0,0,0,0,0,0,0,0,0,0,0],"id":22,"left_children":[1,3,5,7,9,11,13,-1,-1,-1,-1,-1,-1,-1,-1],"loss_changes":[1.1115612E1,6.223109E0,3.8840437E0,3.6405182E0,1.6043091E0,2.5191221E0,2.8583345E0,0E0,0E0,0E0,0E0,0E0,0E0,0E0,0E0],"parents":[2147483647,0,0,1,1,2,2,3,3,4,4,5,5,6,6],"right_children":[2,4,6,8,10,12,14,-1,-1,-1,-1,-1,-1,-1,-1],"split_conditions":[1E0,1.59E2,1E0,2.4E0,2.74E2,6.4E1,5.4E1,8.434351E-3,-5.1502477E-2,5.3305347E-2,8.921691E-3,-1.8346906E-2,4.126529E-2,-4.5267623E-3,-5.345272E-2],"split_indices":[9,6,1,8,4,0,0,0,0,0,0,0,0,0,0],"split_type":[0,0,0,0,0,0,0,0,0,0,0,0,0,0,0],"sum_hessian":[4.88862E1,2.862674E1,2.0259462E1,1.5924546E1,1.2702192E1,5.3516026E0,1.4907859E1,1.38694105E1,2.0551357E0,9.616393E0,3.0857987E0,3.2951565E0,2.056446E0,4.2823153E0,1.0625544E1],"tree_param":{"num_deleted":"0","num_feature":"10","num_nodes":"15","size_leaf_vector":"1"}},{"base_weights":[-1.0931488E-2,-5.1347697E-1,4.0735838E-1,3.8082633E-2,-8.4866697E-1,9.444303E-1,8.6982645E-2,-3.004005E-2,1.1140942E-2,-1.4874147E-2,-5.57228E-2,5.5451285E-2,2.0166809E-2,4.6540253E-2,-9.8840045E-3],"categories":[],"categories_nodes":[],"categories_segments":[],"categories_sizes":[],"default_left":[0,0,0,0,0,0,0,0,0,0,0,0,0,0,0],"id":23,"left_children":[1,3,5,7,9,11,13,-1,-1,-1,-1,-1,-1,-1,-1],"loss_changes":[1.0585076E1,4.259371E0,4.648894E0,1.2668672E0,1.7581892E0,4.5862675E-1,4.585439E0,0E0,0E0,0E0,0E0,0E0,0E0,0E0,0E0],"parents":[2147483647,0,0,1,1,2,2,3,3,4,4,5,5,6,6],"right_children":[2,4,6,8,10,12,14,-1,-1,-1,-1,-1,-1,-1,-1],"split_conditions":[1E0,8E-1,1E0,2.04E2,1E0,1E0,4.5E1,-3.004005E-2,1.1140942E-2,-1.4874147E-2,-5.57228E-2,5.5451285E-2,2.0166809E-2,4.6540253E-2,-9.8840045E-3],"split_indices":[2,8,1,4,7,9,0,0,0,0,0,0,0,0,0],"split_type":[0,0,0,0,0,0,0,0,0,0,0,0,0,0,0],"sum_hessian":[4.83598E1,2.186409E1,2.6495708E1,8.599645E0,1.3264445E1,9.172022E0,1.7323689E1,1.4237161E0,7.1759286E0,5.0048356E0,8.25961E0,6.227944E0,2.9440773E0,3.7973614E0,1.3526326E1],"tree_param":{"num_deleted":"0","num_feature":"10","num_nodes":"15","size_leaf_vector":"1"}},{"base_weights":[-9.997484E-3,3.6778605E-1,-5.349094E-1,5.1341236E-1,-4.279449E-2,1.4430676E-1,-7.763259E-1,4.353102E-2,5.0904085E-3,-1.7765613E-2,3.992748E-2,-4.3209153E-3,-5.142739E-2],"categories":[],"categories_nodes":[],"categories_segments":[],"categories_sizes":[],"default_left":[0,0,0,0,0,0,0,0,0,0,0,0,0],"id":24,"left_children":[1,3,5,7,-1,9,11,-1,-1,-1,-1,-1,-1],"loss_changes":[9.887227E0,5.608721E0,3.5322976E0,3.8147411E0,0E0,2.3472726E0,2.6162071E0,0E0,0E0,0E0,0E0,0E0,0E0],"parents":[2147483647,0,0,1,1,2,2,3,3,5,5,6,6],"right_children":[2,4,6,8,-1,10,12,-1,-1,-1,-1,-1,-1],"split_conditions":[1E0,2.4E0,1E0,2.41E2,-4.279449E-2,6.4E1,5.4E1,4.353102E-2,5.0904085E-3,-1.7765613E-2,3.992748E-2,-4.3209153E-3,-5.142739E-2],"split_indices":[9,8,1,4,0,0,0,0,0,0,0,0,0],"split_type":[0,0,0,0,0,0,0,0,0,0,0,0,0],"sum_hessian":[4.7867096E1,2.800849E1,1.9858608E1,2.554847E1,2.46002E0,5.3129816E0,1.4545626E1,1.3081012E1,1.2467457E1,3.271545E0,2.041437E0,4.25352E0,1.0292106E1],"tree_param":{"num_deleted":"0","num_feature":"10","num_nodes":"13","size_leaf_vector":"1"}},{"base_weights":[-1.0181338E-2,-4.964062E-1,3.9270914E-1,-4.1247033E-2,-8.804266E-1,5.294935E-1,-3.3971585E-2,2.0053154E-2,-2.5843618E-2,-1.1625929E-2,-5.4248966E-2,3.9688822E-2,4.7535445E-3],"categories":[],"categories_nodes":[],"categories_segments":[],"categories_sizes":[],"default_left":[0,0,0,0,0,0,0,0,0,0,0,0,0],"id":25,"left_children":[1,3,5,7,9,11,-1,-1,-1,-1,-1,-1,-1],"loss_changes":[9.670925E0,3.872191E0,4.321059E0,2.580717E0,1.3485947E0,2.7393832E0,0E0,0E0,0E0,0E0,0E0,0E0,0E0],"parents":[2147483647,0,0,1,1,2,2,3,3,4,4,5,5],"right_children":[2,4,6,8,10,12,-1,-1,-1,-1,-1,-1,-1],"split_conditions":[1E0,1E0,2E0,1E0,8E-1,5.7E1,-3.3971585E-2,2.0053154E-2,-2.5843618E-2,-1.1625929E-2,-5.4248966E-2,3.9688822E-2,4.7535445E-3],"split_indices":[2,7,8,9,8,0,0,0,0,0,0,0,0],"split_type":[0,0,0,0,0,0,0,0,0,0,0,0,0],"sum_hessian":[4.7372677E1,2.1361103E1,2.6011574E1,1.0281907E1,1.1079195E1,2.351735E1,2.4942234E0,5.408766E0,4.8731413E0,3.1712322E0,7.9079633E0,1.410768E1,9.40967E0],"tree_param":{"num_deleted":"0","num_feature":"10","num_nodes":"13","size_leaf_vector":"1"}},{"base_weights":[-1.10961795E-2,-4.819179E-1,3.7794533E-1,3.0694867E-2,-8.030286E-1,9.066639E-1,6.93593E-2,-2.9880494E-2,1.0657588E-2,-1.4168401E-2,-5.3162415E-2,5.381308E-2,1.8865028E-2,4.4728447E-2,-1.0037853E-2],"categories":[],"categories_nodes":[],"categories_segments":[],"categories_sizes":[],"default_left":[0,0,0,0,0,0,0,0,0,0,0,0,0,0,0],"id":26,"left_children":[1,3,5,7,9,11,13,-1,-1,-1,-1,-1,-1,-1,-1],"loss_changes":[8.92812E0,3.6530418E0,4.294195E0,1.2110698E0,1.5364122E0,4.7009945E-1,4.1797743E0,0E0,0E0,0E0,0E0,0E0,0E0,0E0,0E0],"parents":[2147483647,0,0,1,1,2,2,3,3,4,4,5,5,6,6],"right_children":[2,4,6,8,10,12,14,-1,-1,-1,-1,-1,-1,-1,-1],"split_conditions":[1E0,8E-1,1E0,2.04E2,1E0,1E0,4.5E1,-2.9880494E-2,1.0657588E-2,-1.4168401E-2,-5.3162415E-2,5.381308E-2,1.8865028E-2,4.4728447E-2,-1.0037853E-2],"split_indices":[2,8,1,4,7,9,0,0,0,0,0,0,0,0,0],"split_type":[0,0,0,0,0,0,0,0,0,0,0,0,0,0,0],"sum_hessian":[4.6748104E1,2.104297E1,2.5705133E1,8.45309E0,1.2589881E1,8.759257E0,1.6945875E1,1.3902624E0,7.062827E0,4.8978324E0,7.6920485E0,5.8514447E0,2.907813E0,3.6088855E0,1.333699E1],"tree_param":{"num_deleted":"0","num_feature":"10","num_nodes":"15","size_leaf_vector":"1"}},{"base_weights":[-1.0180114E-2,3.4508747E-1,-5.0325584E-1,-4.2686656E-2,8.1242275E-1,1.4655812E-1,-7.399367E-1,-3.402988E-2,1.1305702E-2,5.012216E-2,6.6477857E-3,-1.7195418E-2,3.9176732E-2,-4.3970305E-3,-4.9160365E-2],"categories":[],"categories_nodes":[],"categories_segments":[],"categories_sizes":[],"default_left":[0,0,0,0,0,0,0,0,0,0,0,0,0,0,0],"id":27,"left_children":[1,3,5,7,9,11,13,-1,-1,-1,-1,-1,-1,-1,-1],"loss_changes":[8.454616E0,5.1213913E0,3.215722E0,2.9472356E0,1.5166101E0,2.2154157E0,2.2887173E0,0E0,0E0,0E0,0E0,0E0,0E0,0E0,0E0],"parents":[2147483647,0,0,1,1,2,2,3,3,4,4,5,5,6,6],"right_children":[2,4,6,8,10,12,14,-1,-1,-1,-1,-1,-1,-1,-1],"split_conditions":[1E0,1.59E2,1E0,4.8E1,2.74E2,6.4E1,5.4E1,-3.402988E-2,1.1305702E-2,5.012216E-2,6.6477857E-3,-1.7195418E-2,3.9176732E-2,-4.3970305E-3,-4.9160365E-2],"split_indices":[9,6,1,0,4,0,0,0,0,0,0,0,0,0,0],"split_type":[0,0,0,0,0,0,0,0,0,0,0,0,0,0,0],"sum_hessian":[4.6272747E1,2.706918E1,1.9203568E1,1.5290478E1,1.1778702E1,5.2287264E0,1.3974841E1,4.078799E0,1.1211679E1,8.833093E0,2.9456093E0,3.2140374E0,2.014689E0,4.167338E0,9.807503E0],"tree_param":{"num_deleted":"0","num_feature":"10","num_nodes":"15","size_leaf_vector":"1"}},{"base_weights":[-9.674385E-3,1.5456428E-1,-5.248009E-2,4.685019E-1,-3.302179E-1,4.1171037E-2,3.5190072E-3,1.5965622E-2,-3.0018179E-2],"categories":[],"categories_nodes":[],"categories_segments":[],"categories_sizes":[],"default_left":[0,0,0,0,0,0,0,0,0],"id":28,"left_children":[1,3,-1,5,7,-1,-1,-1,-1],"loss_changes":[8.161416E0,6.4430146E0,0E0,3.544034E0,3.1442678E0,0E0,0E0,0E0,0E0],"parents":[2147483647,0,0,1,1,3,3,4,4],"right_children":[2,4,-1,6,8,-1,-1,-1,-1],"split_conditions":[2.4E0,1E0,-5.248009E-2,2.41E2,1E0,4.1171037E-2,3.5190072E-3,1.5965622E-2,-3.0018179E-2],"split_indices":[8,9,0,4,1,0,0,0,0],"split_type":[0,0,0,0,0,0,0,0,0],"sum_hessian":[4.5834652E1,4.031842E1,5.516232E0,2.4491608E1,1.5826813E1,1.2383587E1,1.2108022E1,4.595508E0,1.1231305E1],"tree_param":{"num_deleted":"0","num_feature":"10","num_nodes":"9","size_leaf_vector":"1"}},{"base_weights":[-9.752091E-3,-4.6257353E-1,3.6183912E-1,-3.695306E-2,-8.3135223E-1,8.7140936E-1,7.060243E-2,1.8093035E-2,-2.3457035E-2,-1.1419737E-2,-5.1606882E-2,5.2357E-2,1.7553825E-2,4.3199506E-2,-9.185779E-3],"categories":[],"categories_nodes":[],"categories_segments":[],"categories_sizes":[],"default_left":[0,0,0,0,0,0,0,0,0,0,0,0,0,0,0],"id":29,"left_children":[1,3,5,7,9,11,13,-1,-1,-1,-1,-1,-1,-1,-1],"loss_changes":[7.9709826E0,3.3192139E0,3.8021247E0,2.0578666E0,1.1429973E0,4.9006605E-1,3.7209053E0,0E0,0E0,0E0,0E0,0E0,0E0,0E0,0E0],"parents":[2147483647,0,0,1,1,2,2,3,3,4,4,5,5,6,6],"right_children":[2,4,6,8,10,12,14,-1,-1,-1,-1,-1,-1,-1,-1],"split_conditions":[1E0,1E0,1E0,1E0,8E-1,1E0,4.5E1,1.8093035E-2,-2.3457035E-2,-1.1419737E-2,-5.1606882E-2,5.2357E-2,1.7553825E-2,4.3199506E-2,-9.185779E-3],"split_indices":[2,7,1,9,8,9,0,0,0,0,0,0,0,0,0],"split_type":[0,0,0,0,0,0,0,0,0,0,0,0,0,0,0],"sum_hessian":[4.5377026E1,2.034263E1,2.5034397E1,9.954266E0,1.0388364E1,8.38E0,1.6654398E1,5.261649E0,4.692617E0,3.1291242E0,7.25924E0,5.507518E0,2.872482E0,3.4607441E0,1.3193653E1],"tree_param":{"num_deleted":"0","num_feature":"10","num_nodes":"15","size_leaf_vector":"1"}},{"base_weights":[-8.57659E-3,-4.491841E-1,3.512741E-1,-3.5906438E-2,-8.105779E-1,8.5351014E-1,6.928473E-2,1.7456776E-2,-2.2683067E-2,-1.0997719E-2,-5.0620835E-2,5.158937E-2,1.6976787E-2,-3.7817914E-2,1.5171905E-2],"categories":[],"categories_nodes":[],"categories_segments":[],"categories_sizes":[],"default_left":[0,0,0,0,0,0,0,0,0,0,0,0,0,0,0],"id":30,"left_children":[1,3,5,7,9,11,13,-1,-1,-1,-1,-1,-1,-1,-1],"loss_changes":[7.4250665E0,3.1139803E0,3.5934913E0,1.9058588E0,1.1101503E0,4.913311E-1,3.633102E0,0E0,0E0,0E0,0E0,0E0,0E0,0E0,0E0],"parents":[2147483647,0,0,1,1,2,2,3,3,4,4,5,5,6,6],"right_children":[2,4,6,8,10,12,14,-1,-1,-1,-1,-1,-1,-1,-1],"split_conditions":[1E0,1E0,1E0,1E0,8E-1,1E0,1.43E2,1.7456776E-2,-2.2683067E-2,-1.0997719E-2,-5.0620835E-2,5.158937E-2,1.6976787E-2,-3.7817914E-2,1.5171905E-2],"split_indices":[2,7,1,9,8,9,6,0,0,0,0,0,0,0,0],"split_type":[0,0,0,0,0,0,0,0,0,0,0,0,0,0,0],"sum_hessian":[4.4835045E1,2.0044256E1,2.4790789E1,9.863757E0,1.0180499E1,8.185425E0,1.6605364E1,5.218322E0,4.645435E0,3.1252122E0,7.055287E0,5.3294E0,2.856025E0,3.176079E0,1.3429285E1],"tree_param":{"num_deleted":"0","num_feature":"10","num_nodes":"15","size_leaf_vector":"1"}},{"base_weights":[-8.709499E-3,1.4678404E-1,-5.0685234E-2,4.376989E-1,-2.9896966E-1,3.9437238E-2,2.5479686E-3,-5.351731E-2,-3.4750204E-3],"categories":[],"categories_nodes":[],"categories_segments":[],"categories_sizes":[],"default_left":[0,0,0,0,0,0,0,0,0],"id":31,"left_children":[1,3,-1,5,7,-1,-1,-1,-1],"loss_changes":[7.226788E0,5.330617E0,0E0,3.3089337E0,2.8336768E0,0E0,0E0,0E0,0E0],"parents":[2147483647,0,0,1,1,3,3,4,4],"right_children":[2,4,-1,6,8,-1,-1,-1,-1],"split_conditions":[2.4E0,1E0,-5.0685234E-2,2.41E2,1.21E2,3.9437238E-2,2.5479686E-3,-5.351731E-2,-3.4750204E-3],"split_indices":[8,9,0,4,6,0,0,0,0],"split_type":[0,0,0,0,0,0,0,0,0],"sum_hessian":[4.4293278E1,3.909796E1,5.1953173E0,2.3668875E1,1.5429088E1,1.18621E1,1.1806774E1,2.6973426E0,1.2731745E1],"tree_param":{"num_deleted":"0","num_feature":"10","num_nodes":"9","size_leaf_vector":"1"}},{"base_weights":[-9.830258E-3,-4.3595567E-1,3.3554363E-1,-3.631242E-2,-7.885069E-1,8.3322406E-1,6.1001163E-2,2.1842048E-2,-1.7440343E-2,-1.0990443E-2,-4.9429085E-2,5.059409E-2,1.6682222E-2,4.1841324E-2,-9.069918E-3],"categories":[],"categories_nodes":[],"categories_segments":[],"categories_sizes":[],"default_left":[0,0,0,0,0,0,0,0,0,0,0,0,0,0,0],"id":32,"left_children":[1,3,5,7,9,11,13,-1,-1,-1,-1,-1,-1,-1,-1],"loss_changes":[6.7505903E0,2.8630543E0,3.4129694E0,1.7296742E0,1.0179257E0,4.597659E-1,3.4272425E0,0E0,0E0,0E0,0E0,0E0,0E0,0E0,0E0],"parents":[2147483647,0,0,1,1,2,2,3,3,4,4,5,5,6,6],"right_children":[2,4,6,8,10,12,14,-1,-1,-1,-1,-1,-1,-1,-1],"split_conditions":[1E0,1E0,1E0,1E0,8E-1,1E0,4.5E1,2.1842048E-2,-1.7440343E-2,-1.0990443E-2,-4.9429085E-2,5.059409E-2,1.6682222E-2,4.1841324E-2,-9.069918E-3],"split_indices":[2,7,1,1,8,9,0,0,0,0,0,0,0,0,0],"split_type":[0,0,0,0,0,0,0,0,0,0,0,0,0,0,0],"sum_hessian":[4.387458E1,1.9523743E1,2.4350838E1,9.66769E0,9.856051E0,7.933795E0,1.6417044E1,3.6870885E0,5.980602E0,3.111232E0,6.7448196E0,5.0885725E0,2.8452227E0,3.3244684E0,1.3092575E1],"tree_param":{"num_deleted":"0","num_feature":"10","num_nodes":"15","size_leaf_vector":"1"}},{"base_weights":[-8.412042E-3,1.406907E-1,-4.944425E-2,-2.671269E-1,4.3210524E-1,5.439681E-3,-3.3060893E-2,-1.2617386E-2,3.0842243E-2],"categories":[],"categories_nodes":[],"categories_segments":[],"categories_sizes":[],"default_left":[0,0,0,0,0,0,0,0,0],"id":33,"left_children":[1,3,-1,5,7,-1,-1,-1,-1],"loss_changes":[6.635381E0,4.8034124E0,0E0,2.5990052E0,3.1130548E0,0E0,0E0,0E0,0E0],"parents":[2147483647,0,0,1,1,3,3,4,4],"right_children":[2,4,-1,6,8,-1,-1,-1,-1],"split_conditions":[2.4E0,1E0,-4.944425E-2,1E0,1.43E2,5.439681E-3,-3.3060893E-2,-1.2617386E-2,3.0842243E-2],"split_indices":[8,2,0,7,6,0,0,0,0],"split_type":[0,0,0,0,0,0,0,0,0],"sum_hessian":[4.34367E1,3.8446552E1,4.9901466E0,1.6057861E1,2.2388689E1,8.588905E0,7.4689555E0,4.6807446E0,1.7707945E1],"tree_param":{"num_deleted":"0","num_feature":"10","num_nodes":"9","size_leaf_vector":"1"}},{"base_weights":[-9.427263E-3,1.3458362E-1,-4.8403393E-2,4.1406384E-1,-2.8951564E-1,3.8043313E-2,1.9173705E-3,-2.3046961E-2,3.0464375E-2],"categories":[],"categories_nodes":[],"categories_segments":[],"categories_sizes":[],"default_left":[0,0,0,0,0,0,0,0,0],"id":34,"left_children":[1,3,-1,5,7,-1,-1,-1,-1],"loss_changes":[6.203195E0,4.7568984E0,0E0,3.0971174E0,2.765901E0,0E0,0E0,0E0,0E0],"parents":[2147483647,0,0,1,1,3,3,4,4],"right_children":[2,4,-1,6,8,-1,-1,-1,-1],"split_conditions":[2.4E0,1E0,-4.8403393E-2,2.41E2,6.7E1,3.8043313E-2,1.9173705E-3,-2.3046961E-2,3.0464375E-2],"split_indices":[8,9,0,4,0,0,0,0,0],"split_type":[0,0,0,0,0,0,0,0,0],"sum_hessian":[4.2989162E1,3.812194E1,4.8672233E0,2.2993168E1,1.5128771E1,1.14235935E1,1.1569574E1,1.3114652E1,2.014119E0],"tree_param":{"num_deleted":"0","num_feature":"10","num_nodes":"9","size_leaf_vector":"1"}},{"base_weights":[-9.048617E-3,1.299941E-1,-4.7394108E-2,-2.6261973E-1,4.117343E-1,4.9765743E-3,-3.216096E-2,-1.2147748E-2,2.9578436E-2],"categories":[],"categories_nodes":[],"categories_segments":[],"categories_sizes":[],"default_left":[0,0,0,0,0,0,0,0,0],"id":35,"left_children":[1,3,-1,5,7,-1,-1,-1,-1],"loss_changes":[5.81653E0,4.407465E0,0E0,2.3864126E0,2.8538094E0,0E0,0E0,0E0,0E0],"parents":[2147483647,0,0,1,1,3,3,4,4],"right_children":[2,4,-1,6,8,-1,-1,-1,-1],"split_conditions":[2.4E0,1E0,-4.7394108E-2,1E0,1.43E2,4.9765743E-3,-3.216096E-2,-1.2147748E-2,2.9578436E-2],"split_indices":[8,2,0,7,6,0,0,0,0],"split_type":[0,0,0,0,0,0,0,0,0],"sum_hessian":[4.2614223E1,3.786752E1,4.746702E0,1.584913E1,2.201839E1,8.499807E0,7.349322E0,4.6691823E0,1.7349209E1],"tree_param":{"num_deleted":"0","num_feature":"10","num_nodes":"9","size_leaf_vector":"1"}},{"base_weights":[-1.0022122E-2,1.2429764E-1,-4.641394E-2,3.936555E-1,-2.805103E-1,3.6734294E-2,1.5237147E-3,-2.2379363E-2,2.9464427E-2],"categories":[],"categories_nodes":[],"categories_segments":[],"categories_sizes":[],"default_left":[0,0,0,0,0,0,0,0,0],"id":36,"left_children":[1,3,-1,5,7,-1,-1,-1,-1],"loss_changes":[5.441608E0,4.3143425E0,0E0,2.8964536E0,2.5872009E0,0E0,0E0,0E0,0E0],"parents":[2147483647,0,0,1,1,3,3,4,4],"right_children":[2,4,-1,6,8,-1,-1,-1,-1],"split_conditions":[2.4E0,1E0,-4.641394E-2,2.41E2,6.7E1,3.6734294E-2,1.5237147E-3,-2.2379363E-2,2.9464427E-2],"split_indices":[8,9,0,4,0,0,0,0,0],"split_type":[0,0,0,0,0,0,0,0,0],"sum_hessian":[4.218327E1,3.7554543E1,4.628726E0,2.256645E1,1.4988091E1,1.1110589E1,1.1455862E1,1.2980182E1,2.00791E0],"tree_param":{"num_deleted":"0","num_feature":"10","num_nodes":"9","size_leaf_vector":"1"}},{"base_weights":[-9.6179275E-3,-3.95139E-1,3.003723E-1,2.3463815E-2,-6.866889E-1,7.932818E-1,3.4640253E-2,-3.1119972E-2,1.0605097E-2,4.9525234E-3,-4.2042386E-2,4.8896294E-2,1.551908E-2,4.0742442E-2,-1.0023101E-2],"categories":[],"categories_nodes":[],"categories_segments":[],"categories_sizes":[],"default_left":[0,0,0,0,0,0,0,0,0,0,0,0,0,0,0],"id":37,"left_children":[1,3,5,7,9,11,13,-1,-1,-1,-1,-1,-1,-1,-1],"loss_changes":[5.2363987E0,2.3981893E0,3.1560335E0,1.2260956E0,1.4808865E0,4.514928E-1,3.2517848E0,0E0,0E0,0E0,0E0,0E0,0E0,0E0,0E0],"parents":[2147483647,0,0,1,1,2,2,3,3,4,4,5,5,6,6],"right_children":[2,4,6,8,10,12,14,-1,-1,-1,-1,-1,-1,-1,-1],"split_conditions":[1E0,8E-1,1E0,2.04E2,1.17E2,1E0,4.5E1,-3.1119972E-2,1.0605097E-2,4.9525234E-3,-4.2042386E-2,4.8896294E-2,1.551908E-2,4.0742442E-2,-1.0023101E-2],"split_indices":[2,8,1,4,3,9,0,0,0,0,0,0,0,0,0],"split_type":[0,0,0,0,0,0,0,0,0,0,0,0,0,0,0],"sum_hessian":[4.182324E1,1.8518242E1,2.3304996E1,7.9800825E0,1.0538158E1,7.467736E0,1.5837261E1,1.2841039E0,6.6959786E0,1.7870635E0,8.751096E0,4.660583E0,2.8071527E0,3.0962236E0,1.2741037E1],"tree_param":{"num_deleted":"0","num_feature":"10","num_nodes":"15","size_leaf_vector":"1"}},{"base_weights":[-8.285875E-3,1.2011104E-1,-4.5203805E-2,5.486626E-1,-1.2243317E-1,3.8959097E-2,-7.399642E-3,1.1309937E-2,-3.497398E-2],"categories":[],"categories_nodes":[],"categories_segments":[],"categories_sizes":[],"default_left":[0,0,0,0,0,0,0,0,0],"id":38,"left_children":[1,3,-1,5,7,-1,-1,-1,-1],"loss_changes":[4.991062E0,4.0181503E0,0E0,2.3507981E0,5.2059216E0,0E0,0E0,0E0,0E0],"parents":[2147483647,0,0,1,1,3,3,4,4],"right_children":[2,4,-1,6,8,-1,-1,-1,-1],"split_conditions":[2.4E0,1E0,-4.5203805E-2,1E0,2.48E2,3.8959097E-2,-7.399642E-3,1.1309937E-2,-3.497398E-2],"split_indices":[8,1,0,7,4,0,0,0,0],"split_type":[0,0,0,0,0,0,0,0,0],"sum_hessian":[4.145012E1,3.7011097E1,4.4390206E0,1.2920226E1,2.409087E1,9.618918E0,3.3013072E0,1.5396708E1,8.694163E0],"tree_param":{"num_deleted":"0","num_feature":"10","num_nodes":"9","size_leaf_vector":"1"}},{"base_weights":[-8.789383E-3,-3.7958485E-1,2.8899127E-1,-2.6841808E-2,-7.07367E-1,5.7941765E-1,-1.0133283E-1,2.1782875E-2,-1.6503405E-2,-4.1390672E-2,5.470156E-3,-9.610693E-3,4.1489713E-2,-3.3409413E-2,1.1370614E-2],"categories":[],"categories_nodes":[],"categories_segments":[],"categories_sizes":[],"default_left":[0,0,0,0,0,0,0,0,0,0,0,0,0,0,0],"id":39,"left_children":[1,3,5,7,9,11,13,-1,-1,-1,-1,-1,-1,-1,-1],"loss_changes":[4.762309E0,2.20097E0,2.772252E0,1.5865095E0,1.0657434E0,2.839902E0,2.2136333E0,0E0,0E0,0E0,0E0,0E0,0E0,0E0,0E0],"parents":[2147483647,0,0,1,1,2,2,3,3,4,4,5,5,6,6],"right_children":[2,4,6,8,10,12,14,-1,-1,-1,-1,-1,-1,-1,-1],"split_conditions":[1E0,1E0,5.7E1,1E0,3.18E2,1.53E2,6E1,2.1782875E-2,-1.6503405E-2,-4.1390672E-2,5.470156E-3,-9.610693E-3,4.1489713E-2,-3.3409413E-2,1.1370614E-2],"split_indices":[2,7,0,1,4,6,0,0,0,0,0,0,0,0,0],"split_type":[0,0,0,0,0,0,0,0,0,0,0,0,0,0,0],"sum_hessian":[4.1137234E1,1.8199974E1,2.293726E1,9.2873125E0,8.912661E0,1.2873838E1,1.0063421E1,3.5048144E0,5.7824984E0,7.7554665E0,1.1571945E0,3.2108066E0,9.663032E0,3.314935E0,6.748487E0],"tree_param":{"num_deleted":"0","num_feature":"10","num_nodes":"15","size_leaf_vector":"1"}},{"base_weights":[-8.876114E-3,1.1509926E-1,-4.4302925E-2,3.7224263E-1,-2.6748154E-1,3.9009543E-3,3.8609076E-2,-5.100718E-2,-2.5855014E-3],"categories":[],"categories_nodes":[],"categories_segments":[],"categories_sizes":[],"default_left":[0,0,0,0,0,0,0,0,0],"id":40,"left_children":[1,3,-1,5,7,-1,-1,-1,-1],"loss_changes":[4.644297E0,3.7869272E0,0E0,2.6266127E0,2.48852E0,0E0,0E0,0E0,0E0],"parents":[2147483647,0,0,1,1,3,3,4,4],"right_children":[2,4,-1,6,8,-1,-1,-1,-1],"split_conditions":[2.4E0,1E0,-4.4302925E-2,1.61E2,1.21E2,3.9009543E-3,3.8609076E-2,-5.100718E-2,-2.5855014E-3],"split_indices":[8,9,0,6,6,0,0,0,0],"split_type":[0,0,0,0,0,0,0,0,0],"sum_hessian":[4.076877E1,3.6481495E1,4.2872763E0,2.183356E1,1.4647931E1,1.3267858E1,8.565704E0,2.4330366E0,1.2214895E1],"tree_param":{"num_deleted":"0","num_feature":"10","num_nodes":"9","size_leaf_vector":"1"}},{"base_weights":[-9.84901E-3,3.1361887E-1,-3.2959944E-1,7.321126E-1,3.550629E-2,-6.338686E-1,1.165232E-1,6.94068E-3,5.2863754E-2,1.7713083E-2,-2.2178069E-2,-6.827932E-2,-1.6858617E-2,1.9117294E-2,-2.7515847E-2],"categories":[],"categories_nodes":[],"categories_segments":[],"categories_sizes":[],"default_left":[0,0,0,0,0,0,0,0,0,0,0,0,0,0,0],"id":41,"left_children":[1,3,5,7,9,11,13,-1,-1,-1,-1,-1,-1,-1,-1],"loss_changes":[4.384747E0,2.4286351E0,2.9657457E0,1.4677682E0,2.2524087E0,2.3230085E0,1.89142E0,0E0,0E0,0E0,0E0,0E0,0E0,0E0,0E0],"parents":[2147483647,0,0,1,1,2,2,3,3,4,4,5,5,6,6],"right_children":[2,4,6,8,10,12,14,-1,-1,-1,-1,-1,-1,-1,-1],"split_conditions":[8E-1,2.28E2,1.51E2,1E0,1E0,5.1E1,2E0,6.94068E-3,5.2863754E-2,1.7713083E-2,-2.2178069E-2,-6.827932E-2,-1.6858617E-2,1.9117294E-2,-2.7515847E-2],"split_indices":[8,4,6,2,9,0,9,0,0,0,0,0,0,0,0],"split_type":[0,0,0,0,0,0,0,0,0,0,0,0,0,0,0],"sum_hessian":[4.0394375E1,2.008999E1,2.0304384E1,7.3689823E0,1.2721008E1,1.1821157E1,8.483226E0,3.1140041E0,4.2549777E0,7.7949996E0,4.926009E0,2.3710325E0,9.450125E0,6.370415E0,2.1128104E0],"tree_param":{"num_deleted":"0","num_feature":"10","num_nodes":"15","size_leaf_vector":"1"}},{"base_weights":[-1.0301926E-2,1.0843277E-1,-4.314783E-2,5.2126366E-1,-1.22608185E-1,3.7215125E-2,-6.769553E-3,1.078729E-2,-3.397832E-2],"categories":[],"categories_nodes":[],"categories_segments":[],"categories_sizes":[],"default_left":[0,0,0,0,0,0,0,0,0],"id":42,"left_children":[1,3,-1,5,7,-1,-1,-1,-1],"loss_changes":[4.2502985E0,3.5861356E0,0E0,2.0693812E0,4.761105E0,0E0,0E0,0E0,0E0],"parents":[2147483647,0,0,1,1,3,3,4,4],"right_children":[2,4,-1,6,8,-1,-1,-1,-1],"split_conditions":[2.4E0,1E0,-4.314783E-2,1E0,2.48E2,3.7215125E-2,-6.769553E-3,1.078729E-2,-3.397832E-2],"split_indices":[8,1,0,7,4,0,0,0,0],"split_type":[0,0,0,0,0,0,0,0,0],"sum_hessian":[4.0058258E1,3.5928005E1,4.1302524E0,1.2441324E1,2.3486683E1,9.187298E0,3.2540264E0,1.4991769E1,8.494914E0],"tree_param":{"num_deleted":"0","num_feature":"10","num_nodes":"9","size_leaf_vector":"1"}},{"base_weights":[-1.0713176E-2,2.553298E-1,-3.7268278E-1,-4.7454387E-2,7.124694E-1,-5.15189E-1,4.043777E-1,-3.1280074E-2,9.525853E-3,4.272218E-2,8.12183E-3,5.054864E-3,-3.783896E-2,-1.1878364E-2,3.9705437E-2],"categories":[],"categories_nodes":[],"categories_segments":[],"categories_sizes":[],"default_left":[0,0,0,0,0,0,0,0,0,0,0,0,0,0,0],"id":43,"left_children":[1,3,5,7,9,11,13,-1,-1,-1,-1,-1,-1,-1,-1],"loss_changes":[4.0209503E0,3.368241E0,2.16574E0,2.2419791E0,6.1563396E-1,2.3659377E0,1.0141616E0,0E0,0E0,0E0,0E0,0E0,0E0,0E0,0E0],"parents":[2147483647,0,0,1,1,2,2,3,3,4,4,5,5,6,6],"right_children":[2,4,6,8,10,12,14,-1,-1,-1,-1,-1,-1,-1,-1],"split_conditions":[1E0,1.61E2,6.7E1,4.8E1,2.74E2,5.4E1,1E0,-3.1280074E-2,9.525853E-3,4.272218E-2,8.12183E-3,5.054864E-3,-3.783896E-2,-1.1878364E-2,3.9705437E-2],"split_indices":[9,6,0,0,4,0,2,0,0,0,0,0,0,0,0],"split_type":[0,0,0,0,0,0,0,0,0,0,0,0,0,0,0],"sum_hessian":[3.9766518E1,2.309016E1,1.667636E1,1.4429226E1,8.6609335E0,1.4376782E1,2.2995763E0,3.7324407E0,1.0696786E1,6.4441357E0,2.2167978E0,4.2124734E0,1.0164309E1,1.016191E0,1.2833853E0],"tree_param":{"num_deleted":"0","num_feature":"10","num_nodes":"15","size_leaf_vector":"1"}},{"base_weights":[-9.619112E-3,1.0450983E-1,-4.2168584E-2,5.0597435E-1,-1.1815416E-1,3.629182E-2,-6.446766E-3,1.0296046E-2,-3.2429274E-2],"categories":[],"categories_nodes":[],"categories_segments":[],"categories_sizes":[],"default_left":[0,0,0,0,0,0,0,0,0],"id":44,"left_children":[1,3,-1,5,7,-1,-1,-1,-1],"loss_changes":[3.9376128E0,3.3202078E0,0E0,1.9364274E0,4.3058844E0,0E0,0E0,0E0,0E0],"parents":[2147483647,0,0,1,1,3,3,4,4],"right_children":[2,4,-1,6,8,-1,-1,-1,-1],"split_conditions":[2.4E0,1E0,-4.2168584E-2,1E0,2.48E2,3.629182E-2,-6.446766E-3,1.0296046E-2,-3.2429274E-2],"split_indices":[8,1,0,7,4,0,0,0,0],"split_type":[0,0,0,0,0,0,0,0,0],"sum_hessian":[3.945463E1,3.5473465E1,3.9811652E0,1.220158E1,2.3271887E1,8.956748E0,3.244832E0,1.4825692E1,8.446196E0],"tree_param":{"num_deleted":"0","num_feature":"10","num_nodes":"9","size_leaf_vector":"1"}},{"base_weights":[-1.0037631E-2,-3.5046738E-1,2.6174402E-1,-2.6062725E-2,-6.58603E-1,5.419726E-1,-1.02913916E-1,2.055258E-2,-1.5350521E-2,-3.914584E-2,7.412775E-3,-8.942456E-3,3.9385617E-2,-3.0498326E-2,1.2413345E-2],"categories":[],"categories_nodes":[],"categories_segments":[],"categories_sizes":[],"default_left":[0,0,0,0,0,0,0,0,0,0,0,0,0,0,0],"id":45,"left_children":[1,3,5,7,9,11,13,-1,-1,-1,-1,-1,-1,-1,-1],"loss_changes":[3.8086398E0,1.8082867E0,2.3970242E0,1.3465484E0,1.051352E0,2.4640026E0,2.0738947E0,0E0,0E0,0E0,0E0,0E0,0E0,0E0,0E0],"parents":[2147483647,0,0,1,1,2,2,3,3,4,4,5,5,6,6],"right_children":[2,4,6,8,10,12,14,-1,-1,-1,-1,-1,-1,-1,-1],"split_conditions":[1E0,1E0,5.7E1,1E0,3.18E2,1.53E2,6.1E1,2.055258E-2,-1.5350521E-2,-3.914584E-2,7.412775E-3,-8.942456E-3,3.9385617E-2,-3.0498326E-2,1.2413345E-2],"split_indices":[2,7,0,1,4,6,0,0,0,0,0,0,0,0,0],"split_type":[0,0,0,0,0,0,0,0,0,0,0,0,0,0,0],"sum_hessian":[3.917298E1,1.7261703E1,2.1911278E1,8.937208E0,8.324495E0,1.2115011E1,9.7962675E0,3.315569E0,5.6216393E0,7.238867E0,1.0856283E0,3.14934E0,8.965672E0,3.707005E0,6.089262E0],"tree_param":{"num_deleted":"0","num_feature":"10","num_nodes":"15","size_leaf_vector":"1"}},{"base_weights":[-9.928831E-3,2.921873E-1,-3.1107756E-1,6.972266E-1,2.9682836E-2,-5.9819555E-1,1.1105216E-1,6.3389614E-3,5.129475E-2,1.6721122E-2,-2.1126287E-2,-6.5151095E-2,-1.5388394E-2,1.8071838E-2,-2.5989905E-2],"categories":[],"categories_nodes":[],"categories_segments":[],"categories_sizes":[],"default_left":[0,0,0,0,0,0,0,0,0,0,0,0,0,0,0],"id":46,"left_children":[1,3,5,7,9,11,13,-1,-1,-1,-1,-1,-1,-1,-1],"loss_changes":[3.715665E0,2.1487527E0,2.5433664E0,1.365941E0,1.9913204E0,2.120892E0,1.6278836E0,0E0,0E0,0E0,0E0,0E0,0E0,0E0,0E0],"parents":[2147483647,0,0,1,1,2,2,3,3,4,4,5,5,6,6],"right_children":[2,4,6,8,10,12,14,-1,-1,-1,-1,-1,-1,-1,-1],"split_conditions":[8E-1,2.28E2,1.51E2,1E0,1E0,5.1E1,2E0,6.3389614E-3,5.129475E-2,1.6721122E-2,-2.1126287E-2,-6.5151095E-2,-1.5388394E-2,1.8071838E-2,-2.5989905E-2],"split_indices":[8,4,6,2,9,0,9,0,0,0,0,0,0,0,0],"split_type":[0,0,0,0,0,0,0,0,0,0,0,0,0,0,0],"sum_hessian":[3.8840588E1,1.9404007E1,1.9436583E1,6.9791927E0,1.2424815E1,1.1320013E1,8.1165695E0,3.0577688E0,3.921424E0,7.5783176E0,4.846497E0,2.2858999E0,9.034113E0,6.1161375E0,2.000432E0],"tree_param":{"num_deleted":"0","num_feature":"10","num_nodes":"15","size_leaf_vector":"1"}},{"base_weights":[-1.03421565E-2,9.900205E-2,-4.107833E-2,4.8407274E-1,-1.1248297E-1,3.4706376E-2,-5.6729023E-3,1.0033868E-2,-3.1181261E-2],"categories":[],"categories_nodes":[],"categories_segments":[],"categories_sizes":[],"default_left":[0,0,0,0,0,0,0,0,0],"id":47,"left_children":[1,3,-1,5,7,-1,-1,-1,-1],"loss_changes":[3.5876408E0,2.9638572E0,0E0,1.6920855E0,3.9463608E0,0E0,0E0,0E0,0E0],"parents":[2147483647,0,0,1,1,3,3,4,4],"right_children":[2,4,-1,6,8,-1,-1,-1,-1],"split_conditions":[2.4E0,1E0,-4.107833E-2,1E0,2.48E2,3.4706376E-2,-5.6729023E-3,1.0033868E-2,-3.1181261E-2],"split_indices":[8,1,0,7,4,0,0,0,0],"split_type":[0,0,0,0,0,0,0,0,0],"sum_hessian":[3.852873E1,3.4726E1,3.8027265E0,1.1853782E1,2.287222E1,8.650976E0,3.202806E0,1.4559486E1,8.312733E0],"tree_param":{"num_deleted":"0","num_feature":"10","num_nodes":"9","size_leaf_vector":"1"}},{"base_weights":[-1.0718019E-2,2.4105887E-1,-3.523349E-1,-3.904499E-2,6.7600876E-1,-4.9599597E-1,4.2234382E-1,-2.9136574E-2,9.264385E-3,4.0864166E-2,7.5344923E-3,4.726354E-3,-3.6453363E-2,3.5601996E-2,-2.4366975E-3],"categories":[],"categories_nodes":[],"categories_segments":[],"categories_sizes":[],"default_left":[0,0,0,0,0,0,0,0,0,0,0,0,0,0,0],"id":48,"left_children":[1,3,5,7,9,11,13,-1,-1,-1,-1,-1,-1,-1,-1],"loss_changes":[3.461945E0,2.8525314E0,2.1086965E0,1.9442623E0,5.552726E-1,2.113547E0,4.7272903E-1,0E0,0E0,0E0,0E0,0E0,0E0,0E0,0E0],"parents":[2147483647,0,0,1,1,2,2,3,3,4,4,5,5,6,6],"right_children":[2,4,6,8,10,12,14,-1,-1,-1,-1,-1,-1,-1,-1],"split_conditions":[1E0,1.61E2,6.7E1,4.8E1,2.74E2,5.4E1,2E0,-2.9136574E-2,9.264385E-3,4.0864166E-2,7.5344923E-3,4.726354E-3,-3.6453363E-2,3.5601996E-2,-2.4366975E-3],"split_indices":[9,6,0,0,4,0,9,0,0,0,0,0,0,0,0],"split_type":[0,0,0,0,0,0,0,0,0,0,0,0,0,0,0],"sum_hessian":[3.8262447E1,2.219716E1,1.6065289E1,1.4055667E1,8.141493E0,1.3855569E1,2.2097201E0,3.6389022E0,1.0416765E1,5.9780307E0,2.1634622E0,4.0892453E0,9.766324E0,1.0515449E0,1.1581751E0],"tree_param":{"num_deleted":"0","num_feature":"10","num_nodes":"15","size_leaf_vector":"1"}},{"base_weights":[-9.454084E-3,9.583376E-2,-4.0185392E-2,4.7062013E-1,-1.0839317E-1,3.3882532E-2,-5.397011E-3,-1.5932713E-2,2.887607E-2],"categories":[],"categories_nodes":[],"categories_segments":[],"categories_sizes":[],"default_left":[0,0,0,0,0,0,0,0,0],"id":49,"left_children":[1,3,-1,5,7,-1,-1,-1,-1],"loss_changes":[3.3367057E0,2.7537444E0,0E0,1.5873799E0,3.5975797E0,0E0,0E0,0E0,0E0],"parents":[2147483647,0,0,1,1,3,3,4,4],"right_children":[2,4,-1,6,8,-1,-1,-1,-1],"split_conditions":[2.4E0,1E0,-4.0185392E-2,1E0,1.69E2,3.3882532E-2,-5.397011E-3,-1.5932713E-2,2.887607E-2],"split_indices":[8,1,0,7,6,0,0,0,0],"split_type":[0,0,0,0,0,0,0,0,0],"sum_hessian":[3.7979645E1,3.431069E1,3.6689522E0,1.164183E1,2.2668863E1,8.447668E0,3.194162E0,1.7760094E1,4.908769E0],"tree_param":{"num_deleted":"0","num_feature":"10","num_nodes":"9","size_leaf_vector":"1"}}]},"name":"gbtree"},"learner_model_param":{"base_score":"5.494248E-1","boost_from_average":"1","num_class":"0","num_feature":"10","num_target":"1"},"objective":{"name":"binary:logistic","reg_loss_param":{"scale_pos_weight":"1"}}},"version":[2,0,3]}